{
  "options": {
    "responses": [
      "Hello! How can I help you?",
      "Bye",
      "I am Laxmi AI",
      "I am fine.",
      "Itaxeasy is an AI-driven platform for easing the process of doing taxes.",
      "1. Click on \"File ITR\" Button\n2. Upload your Form 16\n3. Download JSON File and upload it to Income Tax Website",
      "You can file GSTR by going to \"GST Return\" section of Billshill By Itaxeasy",
      "You must file your income tax returns (ITR) for the financial year ending 31st March by 31st July of the same year."
    ],
    "normalizedResponses": [
      0, 0.14285714285714285, 0.2857142857142857, 0.42857142857142855,
      0.5714285714285714, 0.7142857142857143, 0.8571428571428571, 1
    ],
    "uniqueWords": [
      "",
      "namaste",
      "hi",
      "hello",
      "good",
      "day",
      "bye",
      "take",
      "care",
      "what",
      "is",
      "your",
      "name",
      "who",
      "are",
      "you",
      "how",
      "doing",
      "tell",
      "me",
      "about",
      "itaxeasy",
      "history",
      "of",
      "to",
      "file",
      "itr",
      "it",
      "return",
      "gstr",
      "gst",
      "can",
      "due",
      "date",
      "for",
      "filing",
      "last",
      "deadline"
    ],
    "maxWords": 50
  },
  "model": {
    "type": "NeuralNetwork",
    "sizes": [50, 3, 1],
    "layers": [
      { "weights": [], "biases": [] },
      {
        "weights": [
          [
            -4.285928726196289, -0.013977784663438797, -2.9795382022857666,
            2.1179614067077637, -0.7836230993270874, -0.7955098748207092,
            -0.6143572926521301, -0.6895658373832703, -0.056048065423965454,
            0.11522512137889862, -0.12997418642044067, -0.06131111457943916,
            -0.02854890376329422, -0.05064823850989342, -0.106845423579216,
            0.1860843449831009, 0.1592964231967926, -0.01417267881333828,
            0.12045766413211823, -0.196498304605484, -0.037257496267557144,
            0.1835523396730423, -0.09424930065870285, 0.18874113261699677,
            0.13690802454948425, -0.14055690169334412, 0.08589722216129303,
            -0.14997078478336334, 0.15483324229717255, -0.0646594688296318,
            0.0677289068698883, 0.0716468021273613, 0.15284647047519684,
            0.1147928461432457, -0.09283130615949631, -0.13346640765666962,
            -0.06384581327438354, 0.02588634192943573, -0.057102270424366,
            0.11716976016759872, -0.019871430471539497, 0.09950156509876251,
            -0.08640281856060028, -0.08208118379116058, -0.0002561814908403903,
            -0.1801096796989441, -0.04960665479302406, -0.04449114575982094,
            -0.10185183584690094, -0.0016449862159788609
          ],
          [
            1.7163703441619873, -1.3783750534057617, 0.05053942650556564,
            -0.4436749815940857, 0.8177893757820129, 0.5911914110183716,
            0.7096127867698669, 0.7616539597511292, 0.016933586448431015,
            0.05036343261599541, -0.050255849957466125, 0.09793588519096375,
            -0.05078282579779625, -0.0886060893535614, -0.16552405059337616,
            -0.1413487195968628, 0.055135611444711685, 0.16655322909355164,
            0.13495539128780365, 0.011574160307645798, 0.17841099202632904,
            0.1892770528793335, -0.09826644510030746, -0.1736653447151184,
            0.18478816747665405, 0.16024565696716309, -0.011133079417049885,
            0.052448999136686325, -0.17474666237831116, 0.001991996308788657,
            -0.14484339952468872, 0.09066448360681534, -0.15495780110359192,
            -0.07278108596801758, 0.12649649381637573, 0.16225530207157135,
            0.0945972204208374, -0.1526208221912384, -0.03914238139986992,
            0.16334374248981476, 0.11953507363796234, -0.10336918383836746,
            -0.18239060044288635, -0.13298830389976501, 0.021099455654621124,
            -0.16530939936637878, -0.1789584904909134, 0.02697146125137806,
            -0.02618747018277645, -0.0560496486723423
          ],
          [
            1.7472742795944214, 2.67941951751709, -0.602591335773468,
            2.758762836456299, 1.224502444267273, 0.9395714998245239,
            1.2037920951843262, 0.970710813999176, 0.14010824263095856,
            -0.19569742679595947, 0.16118261218070984, -0.02543165534734726,
            -0.16955715417861938, -0.14268778264522552, -0.037231046706438065,
            0.19406193494796753, 0.15874631702899933, 0.004910068586468697,
            0.19105985760688782, -0.06541041284799576, -0.11874587088823318,
            0.019740626215934753, -0.12040235847234726, 0.09581156075000763,
            -0.10737959295511246, 0.19000311195850372, 0.13965049386024475,
            -0.11938261985778809, -0.09855720400810242, -0.17060621082782745,
            -0.01616486720740795, 0.19601672887802124, 0.05681358277797699,
            -0.17209842801094055, -0.18941174447536469, -0.08553622663021088,
            -0.17552140355110168, 0.0967504009604454, 0.1929711550474167,
            0.10328610241413116, 0.10227370262145996, 0.14011387526988983,
            0.16264495253562927, -0.02211812697350979, -0.09586330503225327,
            -0.04396074637770653, -0.15209215879440308, -0.05141996592283249,
            -0.1600089818239212, -0.17950156331062317
          ]
        ],
        "biases": [0.23494379222393036, -1.214125394821167, -4.2408671379089355]
      },
      {
        "weights": [[-5.566986083984375, 3.186689853668213, 5.000056266784668]],
        "biases": [-0.8532675504684448]
      }
    ],
    "inputLookup": null,
    "inputLookupLength": 0,
    "outputLookup": null,
    "outputLookupLength": 0,
    "options": {
      "inputSize": 0,
      "outputSize": 0,
      "binaryThresh": 1e-7,
      "hiddenLayers": [3],
      "activation": "sigmoid",
      "iterations": 20000
    },
    "trainOpts": {
      "activation": "sigmoid",
      "iterations": 20000,
      "errorThresh": 0.005,
      "log": false,
      "logPeriod": 10,
      "leakyReluAlpha": 0.01,
      "learningRate": 0.3,
      "momentum": 0.1,
      "callbackPeriod": 10,
      "timeout": "Infinity",
      "beta1": 0.9,
      "beta2": 0.999,
      "epsilon": 1e-8
    }
  }
}
